{
  "type": "LSTM",
  "options": {
    "inputSize": 30,
    "inputRange": 30,
    "hiddenSizes": [
      20,
      20
    ],
    "outputSize": 30,
    "learningRate": 0.01,
    "decayRate": 0.999,
    "smoothEps": 1e-8,
    "regc": 0.000001,
    "clipval": 5,
    "json": null,
    "dataFormatter": {
      "values": [
        "code",
        "drive",
        "hardware",
        "i found some bugs in the code",
        "i need a new power supply",
        "i swapped the memory",
        "i tested the code",
        "it needs more memory",
        "my unit test failed",
        "power supply",
        "program",
        "software",
        "the drive has a 2TB capacity",
        "tried the program, but it was buggy",
        "unit-tests"
      ],
      "indexTable": {
        "2": 22,
        "c": 0,
        "o": 1,
        "d": 2,
        "e": 3,
        "r": 4,
        "i": 5,
        "v": 6,
        "h": 7,
        "a": 8,
        "w": 9,
        " ": 10,
        "f": 11,
        "u": 12,
        "n": 13,
        "s": 14,
        "m": 15,
        "b": 16,
        "g": 17,
        "t": 18,
        "p": 19,
        "l": 20,
        "y": 21,
        "T": 23,
        "B": 24,
        ",": 25,
        "-": 26,
        "stop-input": 27,
        "start-output": 28,
        "unrecognized": 29
      },
      "characterTable": {
        "0": "c",
        "1": "o",
        "2": "d",
        "3": "e",
        "4": "r",
        "5": "i",
        "6": "v",
        "7": "h",
        "8": "a",
        "9": "w",
        "10": " ",
        "11": "f",
        "12": "u",
        "13": "n",
        "14": "s",
        "15": "m",
        "16": "b",
        "17": "g",
        "18": "t",
        "19": "p",
        "20": "l",
        "21": "y",
        "22": "2",
        "23": "T",
        "24": "B",
        "25": ",",
        "26": "-",
        "27": "stop-input",
        "28": "start-output",
        "29": "unrecognized"
      },
      "characters": [
        "c",
        "o",
        "d",
        "e",
        "r",
        "i",
        "v",
        "h",
        "a",
        "w",
        " ",
        "f",
        "u",
        "n",
        "s",
        "m",
        "b",
        "g",
        "t",
        "p",
        "l",
        "y",
        "2",
        "T",
        "B",
        ",",
        "-",
        "stop-input",
        "start-output",
        "unrecognized"
      ]
    }
  },
  "input": {
    "rows": 31,
    "columns": 30,
    "weights": {
      "0": 0.4333881735801697,
      "1": -0.20776046812534332,
      "2": 1.9283527135849,
      "3": 0.36512666940689087,
      "4": 0.6400538682937622,
      "5": -0.8623262047767639,
      "6": -0.40592217445373535,
      "7": 0.2462145984172821,
      "8": -0.3645627498626709,
      "9": 0.4636225998401642,
      "10": 1.0801570415496826,
      "11": -0.09340883046388626,
      "12": -0.8290439248085022,
      "13": -1.544363021850586,
      "14": -0.5591197609901428,
      "15": -0.23394526541233063,
      "16": 1.166059970855713,
      "17": -1.2335622310638428,
      "18": 1.7973991632461548,
      "19": 2.3543193340301514,
      "20": -2.1456518173217773,
      "21": -1.2571316957473755,
      "22": -1.1406316757202148,
      "23": -0.09528151899576187,
      "24": 0.15716713666915894,
      "25": -1.5240591764450073,
      "26": 0.6870445013046265,
      "27": 0.07970135658979416,
      "28": -0.5610822439193726,
      "29": -0.5281785726547241,
      "30": 4.840416431427002,
      "31": 4.157450199127197,
      "32": 0.22692200541496277,
      "33": -3.5119566917419434,
      "34": -1.009431004524231,
      "35": -0.017361145466566086,
      "36": -2.274803876876831,
      "37": -1.7688186168670654,
      "38": 0.20423723757266998,
      "39": 0.5679436326026917,
      "40": -1.8475837707519531,
      "41": 4.652307510375977,
      "42": -1.0643047094345093,
      "43": 2.1855483055114746,
      "44": -5.70846700668335,
      "45": 1.5902620553970337,
      "46": 9.4689302444458,
      "47": -1.9642019271850586,
      "48": -1.2676758766174316,
      "49": 2.5027337074279785,
      "50": -0.4878636300563812,
      "51": -2.0658347606658936,
      "52": 0.963381290435791,
      "53": 5.809807300567627,
      "54": 1.9911423921585083,
      "55": 0.6189508438110352,
      "56": -0.4041672945022583,
      "57": -0.03856990486383438,
      "58": -1.9315943717956543,
      "59": -0.5709217190742493,
      "60": 0.8952409625053406,
      "61": -0.07828503102064133,
      "62": -0.5966728925704956,
      "63": -2.3714663982391357,
      "64": -0.6681315898895264,
      "65": 1.7331032752990723,
      "66": -1.7508480548858643,
      "67": 0.4571494162082672,
      "68": 1.5607516765594482,
      "69": -2.169989824295044,
      "70": -0.877288818359375,
      "71": -0.34291204810142517,
      "72": -2.4184012413024902,
      "73": -0.4667065739631653,
      "74": -0.14700590074062347,
      "75": 0.789156973361969,
      "76": 1.7008860111236572,
      "77": -0.5083655714988708,
      "78": -0.2457284778356552,
      "79": -0.3065098524093628,
      "80": 0.27448198199272156,
      "81": -0.4356731176376343,
      "82": 1.0001083612442017,
      "83": -0.8958295583724976,
      "84": 0.24547648429870605,
      "85": 0.3883117139339447,
      "86": -0.00167714839335531,
      "87": 0.44574299454689026,
      "88": -0.7034024596214294,
      "89": 1.841187596321106,
      "90": 0.13425888121128082,
      "91": 0.7678929567337036,
      "92": 0.6124811768531799,
      "93": -1.5170899629592896,
      "94": -0.021437447518110275,
      "95": 0.37050458788871765,
      "96": -2.2539782524108887,
      "97": 1.3474376201629639,
      "98": 0.2563001811504364,
      "99": -0.8792724013328552,
      "100": 0.4444066286087036,
      "101": 0.3579028248786926,
      "102": -2.8787193298339844,
      "103": 0.5159366130828857,
      "104": -0.9914880394935608,
      "105": 0.738711416721344,
      "106": 0.8824593424797058,
      "107": 0.034391991794109344,
      "108": -0.2066476196050644,
      "109": -0.5257461667060852,
      "110": 0.33877962827682495,
      "111": 0.1852416843175888,
      "112": 0.39487510919570923,
      "113": -0.6854932904243469,
      "114": -0.3049705922603607,
      "115": -1.070067286491394,
      "116": 0.10836625099182129,
      "117": 1.6093004941940308,
      "118": -0.3525640666484833,
      "119": 0.8286275267601013,
      "120": 0.27389246225357056,
      "121": 0.5050837397575378,
      "122": 0.07310023158788681,
      "123": 0.9708155393600464,
      "124": -1.1306171417236328,
      "125": 1.1218814849853516,
      "126": -0.05595465749502182,
      "127": 0.25255921483039856,
      "128": -0.07374522089958191,
      "129": 0.11297767609357834,
      "130": -0.5662450194358826,
      "131": -0.8984348177909851,
      "132": -0.20204484462738037,
      "133": -1.5496751070022583,
      "134": -1.3090546131134033,
      "135": 0.508868932723999,
      "136": 0.8562499284744263,
      "137": -0.04764363542199135,
      "138": 0.2920421361923218,
      "139": 0.5655713677406311,
      "140": -1.71034836769104,
      "141": -0.5216965079307556,
      "142": -0.10034666210412979,
      "143": 0.9161648154258728,
      "144": -0.46782028675079346,
      "145": -0.1674174666404724,
      "146": 1.341327428817749,
      "147": -0.00184448657091707,
      "148": 0.4159446954727173,
      "149": 0.30106040835380554,
      "150": 1.4122943878173828,
      "151": 2.4730992317199707,
      "152": 0.358543336391449,
      "153": 1.211130142211914,
      "154": -0.41132819652557373,
      "155": 1.2856861352920532,
      "156": -0.8783162236213684,
      "157": -0.8302788734436035,
      "158": -0.14428965747356415,
      "159": 0.7593628168106079,
      "160": -0.15538030862808228,
      "161": -0.15061239898204803,
      "162": 0.14246337115764618,
      "163": 0.5009812116622925,
      "164": -1.6882364749908447,
      "165": -0.545414924621582,
      "166": 0.790161669254303,
      "167": -0.47410494089126587,
      "168": 0.42911309003829956,
      "169": -0.5587884783744812,
      "170": -2.382810592651367,
      "171": -1.6938560009002686,
      "172": -0.20303936302661896,
      "173": 1.9130171537399292,
      "174": -1.829931378364563,
      "175": 1.108815312385559,
      "176": 1.0679055452346802,
      "177": 0.7684194445610046,
      "178": -0.08787300437688828,
      "179": -0.14821398258209229,
      "180": 0.10192923247814178,
      "181": 0.5483047366142273,
      "182": -0.47483929991722107,
      "183": 0.21277545392513275,
      "184": 1.3439152240753174,
      "185": 0.4767792820930481,
      "186": -4.100537300109863,
      "187": -0.9745897054672241,
      "188": -0.6104758977890015,
      "189": 1.2333323955535889,
      "190": -0.8822140097618103,
      "191": -1.9464014768600464,
      "192": -2.886575222015381,
      "193": 0.0741586834192276,
      "194": 0.6509111523628235,
      "195": -0.5032328367233276,
      "196": 1.4084683656692505,
      "197": -0.3638954758644104,
      "198": -0.105987548828125,
      "199": 1.680307149887085,
      "200": 0.71893709897995,
      "201": 0.9361374974250793,
      "202": -0.5762083530426025,
      "203": -2.2792139053344727,
      "204": -1.9626052379608154,
      "205": 0.4708198308944702,
      "206": 0.9112685322761536,
      "207": 0.29753220081329346,
      "208": -1.8746812343597412,
      "209": -0.7740950584411621,
      "210": -1.0582795143127441,
      "211": 7.290874004364014,
      "212": -2.036557674407959,
      "213": -2.163562536239624,
      "214": 6.530605316162109,
      "215": -4.678648471832275,
      "216": -3.1443045139312744,
      "217": -0.08202008157968521,
      "218": 2.359912157058716,
      "219": 3.6646573543548584,
      "220": 0.044840965420007706,
      "221": 1.354200839996338,
      "222": -6.584713935852051,
      "223": 0.2926885187625885,
      "224": 0.1521267592906952,
      "225": -1.5421298742294312,
      "226": 7.234659671783447,
      "227": 2.008373498916626,
      "228": 1.6190986633300781,
      "229": 1.115189552307129,
      "230": -2.486987352371216,
      "231": 1.480535626411438,
      "232": 2.1882717609405518,
      "233": 1.2459455728530884,
      "234": -1.785980463027954,
      "235": 1.974557638168335,
      "236": -1.0160719156265259,
      "237": 8.705863952636719,
      "238": -7.063273906707764,
      "239": -0.7266240119934082,
      "240": -1.9221570491790771,
      "241": 0.2329344004392624,
      "242": -1.336921215057373,
      "243": -1.7221908569335938,
      "244": 2.9194271564483643,
      "245": 2.9589695930480957,
      "246": -4.181544303894043,
      "247": 0.3941464126110077,
      "248": 0.15042969584465027,
      "249": -1.5373749732971191,
      "250": 0.48528528213500977,
      "251": -3.2559609413146973,
      "252": 0.1261003315448761,
      "253": 1.6882292032241821,
      "254": -1.611173152923584,
      "255": 0.6221796870231628,
      "256": -0.9857867360115051,
      "257": 2.014763116836548,
      "258": 0.3363505005836487,
      "259": -1.3828505277633667,
      "260": 1.3778339624404907,
      "261": 0.5605489015579224,
      "262": -0.7886781096458435,
      "263": 2.3119616508483887,
      "264": -3.2049148082733154,
      "265": 1.7349692583084106,
      "266": -1.7701855897903442,
      "267": 4.770003795623779,
      "268": -0.1669233739376068,
      "269": 2.1808888912200928,
      "270": 0.25114506483078003,
      "271": -2.1179890632629395,
      "272": 0.876573920249939,
      "273": -2.518372058868408,
      "274": -0.1898137927055359,
      "275": 0.49346527457237244,
      "276": 0.8989287614822388,
      "277": 1.5380080938339233,
      "278": 2.8596017360687256,
      "279": 1.0374070405960083,
      "280": 0.658622145652771,
      "281": 2.6777684688568115,
      "282": -0.40329989790916443,
      "283": 1.29864501953125,
      "284": -1.1866071224212646,
      "285": 0.29509231448173523,
      "286": 0.14830388128757477,
      "287": -0.5120655298233032,
      "288": 1.5364205837249756,
      "289": -0.4448418617248535,
      "290": 0.7930961847305298,
      "291": -0.5488346815109253,
      "292": -0.7066732048988342,
      "293": 0.7159358263015747,
      "294": 0.18972167372703552,
      "295": -0.593466579914093,
      "296": -0.24975061416625977,
      "297": -0.5044101476669312,
      "298": 0.9642238020896912,
      "299": 2.9407339096069336,
      "300": 0.28825312852859497,
      "301": 1.4912062883377075,
      "302": -0.3655393719673157,
      "303": -1.6893930435180664,
      "304": -0.3313736915588379,
      "305": 0.48603737354278564,
      "306": -3.350823163986206,
      "307": 0.3633292615413666,
      "308": 0.9776369333267212,
      "309": -1.4175946712493896,
      "310": 1.348982334136963,
      "311": -0.5209795832633972,
      "312": -1.708643913269043,
      "313": 1.814274549484253,
      "314": -1.345594882965088,
      "315": 0.34500768780708313,
      "316": 0.28377652168273926,
      "317": -0.1775149554014206,
      "318": -0.8969271183013916,
      "319": 1.3607369661331177,
      "320": 0.5579848885536194,
      "321": 1.329066276550293,
      "322": 0.951291024684906,
      "323": 0.13570326566696167,
      "324": -1.0322481393814087,
      "325": -0.5670164823532104,
      "326": -0.5855591297149658,
      "327": 1.9414235353469849,
      "328": -0.3724643290042877,
      "329": 2.310427188873291,
      "330": 1.431068778038025,
      "331": -1.2068380117416382,
      "332": 0.7212650179862976,
      "333": 2.7779593467712402,
      "334": -1.2320476770401,
      "335": 1.8304479122161865,
      "336": 0.043384384363889694,
      "337": 0.6147193908691406,
      "338": -0.030331216752529144,
      "339": -0.7535342574119568,
      "340": 0.3556855022907257,
      "341": -2.1643335819244385,
      "342": 0.44240784645080566,
      "343": -2.662468433380127,
      "344": -3.3446011543273926,
      "345": 1.2142130136489868,
      "346": -0.3812767267227173,
      "347": -1.875207781791687,
      "348": 1.8072576522827148,
      "349": 1.949509859085083,
      "350": -2.7314376831054688,
      "351": -2.5401952266693115,
      "352": -1.2939726114273071,
      "353": 0.053582385182380676,
      "354": -1.4775255918502808,
      "355": -0.99146968126297,
      "356": 0.4093937873840332,
      "357": -1.7547647953033447,
      "358": 0.7451139092445374,
      "359": 1.1343047618865967,
      "360": 2.015373706817627,
      "361": 1.4094741344451904,
      "362": -1.6669896841049194,
      "363": -0.8140387535095215,
      "364": 0.5347641110420227,
      "365": -0.8846648931503296,
      "366": -1.8851128816604614,
      "367": -2.463489055633545,
      "368": -0.4173972010612488,
      "369": 0.7403861880302429,
      "370": 0.8234726786613464,
      "371": 0.9561035633087158,
      "372": -1.7122559547424316,
      "373": 0.33572790026664734,
      "374": -1.2972102165222168,
      "375": -1.14885675907135,
      "376": 4.099045276641846,
      "377": 1.5086660385131836,
      "378": -1.4109461307525635,
      "379": -1.8312398195266724,
      "380": -0.6517653465270996,
      "381": -1.0342885255813599,
      "382": -0.4089743196964264,
      "383": 2.070904493331909,
      "384": 0.3255503475666046,
      "385": 1.6185474395751953,
      "386": -2.3641085624694824,
      "387": -0.3817962110042572,
      "388": -2.4300696849823,
      "389": -0.8127985596656799,
      "390": -6.055492877960205,
      "391": 0.11719828844070435,
      "392": -1.6188784837722778,
      "393": -2.146343231201172,
      "394": -1.1985743045806885,
      "395": -1.5221267938613892,
      "396": 0.6825115084648132,
      "397": -0.33833053708076477,
      "398": 1.6486831903457642,
      "399": -1.3036673069000244,
      "400": 1.316481351852417,
      "401": -1.8045164346694946,
      "402": 1.6284241676330566,
      "403": 2.9776222705841064,
      "404": 1.974120855331421,
      "405": 0.584339439868927,
      "406": -0.9071381688117981,
      "407": 1.293637990951538,
      "408": -1.6647734642028809,
      "409": -0.7913312911987305,
      "410": 1.4229496717453003,
      "411": 4.815927982330322,
      "412": 0.5870341658592224,
      "413": -1.7413527965545654,
      "414": -0.42482367157936096,
      "415": -0.14942903816699982,
      "416": -0.9374732375144958,
      "417": 0.26406413316726685,
      "418": -0.27305662631988525,
      "419": -0.6613531112670898,
      "420": 2.1599669456481934,
      "421": -3.0365426540374756,
      "422": 2.080789566040039,
      "423": 5.004141807556152,
      "424": -2.3011672496795654,
      "425": -0.9885267019271851,
      "426": 0.273332804441452,
      "427": 0.5524548888206482,
      "428": -3.834347724914551,
      "429": 0.33741477131843567,
      "430": 0.6188339591026306,
      "431": -1.8794331550598145,
      "432": 1.62485671043396,
      "433": -4.738485813140869,
      "434": -1.4015759229660034,
      "435": 2.2651889324188232,
      "436": -0.41934555768966675,
      "437": -0.009800589643418789,
      "438": 3.5715866088867188,
      "439": 0.7441514730453491,
      "440": -3.456841468811035,
      "441": -3.4382667541503906,
      "442": -0.8189419507980347,
      "443": 0.8327896595001221,
      "444": 0.4410342872142792,
      "445": -0.9877622723579407,
      "446": 0.026167066767811775,
      "447": 0.1524929702281952,
      "448": -0.3317132592201233,
      "449": -0.5872876644134521,
      "450": -2.2407164573669434,
      "451": -2.0704495906829834,
      "452": -2.5820090770721436,
      "453": 1.1074955463409424,
      "454": -1.5417542457580566,
      "455": -0.7260059714317322,
      "456": 1.8850266933441162,
      "457": 0.11291328817605972,
      "458": -1.291835904121399,
      "459": 0.47116369009017944,
      "460": 0.6322988271713257,
      "461": -1.8592451810836792,
      "462": 1.9139881134033203,
      "463": -0.6508446931838989,
      "464": 0.2036249339580536,
      "465": -0.3545265793800354,
      "466": -2.2622342109680176,
      "467": 0.9132953882217407,
      "468": 0.1711168736219406,
      "469": -1.1745039224624634,
      "470": 1.3782553672790527,
      "471": 0.7048898935317993,
      "472": -0.34648728370666504,
      "473": -0.9892370104789734,
      "474": 2.4177663326263428,
      "475": -1.6149994134902954,
      "476": -1.9381043910980225,
      "477": -0.8502881526947021,
      "478": 1.2993557453155518,
      "479": 0.15239721536636353,
      "480": 0.42632240056991577,
      "481": 1.362733006477356,
      "482": -2.0334582328796387,
      "483": 3.203259229660034,
      "484": 0.27526289224624634,
      "485": 0.6435727477073669,
      "486": 0.9353394508361816,
      "487": -3.4866206645965576,
      "488": -4.198555946350098,
      "489": -0.7444649934768677,
      "490": 0.046486448496580124,
      "491": -1.3314812183380127,
      "492": -0.257997989654541,
      "493": 0.5257461071014404,
      "494": 1.5072506666183472,
      "495": -3.7292795181274414,
      "496": 0.9987059235572815,
      "497": 2.782461643218994,
      "498": -2.1175971031188965,
      "499": -1.0685396194458008,
      "500": -1.1975361108779907,
      "501": -0.4833452105522156,
      "502": -2.0852248668670654,
      "503": 0.46802783012390137,
      "504": 0.24373489618301392,
      "505": 3.0533058643341064,
      "506": 0.09496884047985077,
      "507": -0.9226261973381042,
      "508": -2.7914011478424072,
      "509": -2.734096050262451,
      "510": -0.6843059062957764,
      "511": -8.056190490722656,
      "512": -4.403785705566406,
      "513": 11.181697845458984,
      "514": -2.0591821670532227,
      "515": -3.879261016845703,
      "516": 3.4350812435150146,
      "517": 0.28648728132247925,
      "518": -5.4124603271484375,
      "519": 5.380669593811035,
      "520": 3.177461624145508,
      "521": 3.215245008468628,
      "522": 1.8757485151290894,
      "523": -1.2988718748092651,
      "524": 1.6924229860305786,
      "525": 4.912136077880859,
      "526": -0.0045812237076461315,
      "527": 1.846618413925171,
      "528": 2.5810561180114746,
      "529": -3.237842321395874,
      "530": -1.2108542919158936,
      "531": 4.051416397094727,
      "532": -2.679511070251465,
      "533": 3.4900131225585938,
      "534": -1.480526089668274,
      "535": -1.448378324508667,
      "536": 1.33236825466156,
      "537": -3.57120943069458,
      "538": -1.392325758934021,
      "539": -1.1874300241470337,
      "540": 1.8764750957489014,
      "541": 2.0265748500823975,
      "542": 0.9249878525733948,
      "543": -7.440546035766602,
      "544": 0.8247328996658325,
      "545": 3.532320261001587,
      "546": -4.598081588745117,
      "547": 2.5407817363739014,
      "548": 2.307924747467041,
      "549": -3.2290661334991455,
      "550": -1.7682609558105469,
      "551": -2.3535571098327637,
      "552": -6.838052272796631,
      "553": 2.1050236225128174,
      "554": -0.2160247266292572,
      "555": 1.6221556663513184,
      "556": 2.967986822128296,
      "557": 1.8318177461624146,
      "558": -0.7916149497032166,
      "559": -3.0765573978424072,
      "560": -0.052892833948135376,
      "561": 1.945664405822754,
      "562": 5.348898410797119,
      "563": -5.209148406982422,
      "564": 1.7216510772705078,
      "565": -1.9521939754486084,
      "566": 2.7632994651794434,
      "567": 2.547417640686035,
      "568": -3.4763259887695312,
      "569": 4.486467361450195,
      "570": -2.617525100708008,
      "571": -0.8032441139221191,
      "572": -0.961058497428894,
      "573": -1.1486111879348755,
      "574": 1.0353748798370361,
      "575": -3.809452772140503,
      "576": 0.16401275992393494,
      "577": -0.06569334864616394,
      "578": 1.0537142753601074,
      "579": 0.8145726919174194,
      "580": -0.5137773752212524,
      "581": -1.3709403276443481,
      "582": 1.3865286111831665,
      "583": 0.44045546650886536,
      "584": 3.168419122695923,
      "585": -1.0130678415298462,
      "586": -1.5510787963867188,
      "587": -0.7643603086471558,
      "588": 1.324309229850769,
      "589": -0.5312622785568237,
      "590": 1.1811585426330566,
      "591": 1.7934895753860474,
      "592": -0.8936865329742432,
      "593": -0.602112352848053,
      "594": 2.3169937133789062,
      "595": -0.061487119644880295,
      "596": 0.19642330706119537,
      "597": 0.0804516077041626,
      "598": -0.9648707509040833,
      "599": -0.5760728716850281,
      "600": -0.4229789674282074,
      "601": -1.7360844612121582,
      "602": 0.4928697943687439,
      "603": 2.5362396240234375,
      "604": -0.3423527479171753,
      "605": 0.2618010342121124,
      "606": 1.6769458055496216,
      "607": -0.6792382001876831,
      "608": -1.7951408624649048,
      "609": -1.5922787189483643,
      "610": -0.1973811537027359,
      "611": -1.088556170463562,
      "612": 2.401275157928467,
      "613": -0.48346376419067383,
      "614": 2.3535759449005127,
      "615": 1.3316229581832886,
      "616": -3.970777750015259,
      "617": -1.754567265510559,
      "618": -0.32362639904022217,
      "619": -0.3944379687309265,
      "620": 2.0837182998657227,
      "621": -2.144395112991333,
      "622": -3.0081770420074463,
      "623": 2.782641649246216,
      "624": -1.3392513990402222,
      "625": 0.47237709164619446,
      "626": 0.4855112135410309,
      "627": -1.3119730949401855,
      "628": 1.8487317562103271,
      "629": -1.8320013284683228,
      "630": 3.9129178524017334,
      "631": 6.309720516204834,
      "632": 0.5064297318458557,
      "633": 2.273918867111206,
      "634": 1.2025494575500488,
      "635": 0.8407915830612183,
      "636": -4.047825813293457,
      "637": 0.26049521565437317,
      "638": -0.5067182183265686,
      "639": 1.787691354751587,
      "640": 2.5496394634246826,
      "641": -0.07367485761642456,
      "642": -4.140183925628662,
      "643": 1.365494728088379,
      "644": -2.9207663536071777,
      "645": 0.46005386114120483,
      "646": 5.307269096374512,
      "647": 3.4205210208892822,
      "648": -2.614917278289795,
      "649": -0.37347593903541565,
      "650": -1.396488904953003,
      "651": 1.0603433847427368,
      "652": 1.3228356838226318,
      "653": 0.3108633756637573,
      "654": -3.0542922019958496,
      "655": -2.0444588661193848,
      "656": 0.4943940043449402,
      "657": 1.8764560222625732,
      "658": -5.780788421630859,
      "659": -1.3820456266403198,
      "660": -0.5375156402587891,
      "661": -1.1937586069107056,
      "662": -0.8411684632301331,
      "663": 1.1273616552352905,
      "664": 0.5972601175308228,
      "665": -4.159085750579834,
      "666": 0.2136065661907196,
      "667": 0.4028182029724121,
      "668": -0.6651638150215149,
      "669": 0.2521626353263855,
      "670": -0.10313428193330765,
      "671": -0.7505084276199341,
      "672": -0.08570444583892822,
      "673": -2.039660930633545,
      "674": -0.9562914967536926,
      "675": 0.18989814817905426,
      "676": 1.8999993801116943,
      "677": 1.0353527069091797,
      "678": 1.4443031549453735,
      "679": -2.045295000076294,
      "680": -1.9797782897949219,
      "681": -1.4369438886642456,
      "682": 0.6689872741699219,
      "683": 0.09113562107086182,
      "684": 4.9556565284729,
      "685": -0.24607184529304504,
      "686": -3.382550001144409,
      "687": -0.899373471736908,
      "688": -0.07987995445728302,
      "689": -0.7922588586807251,
      "690": 4.572800159454346,
      "691": 7.917949199676514,
      "692": 6.886170864105225,
      "693": 1.6275476217269897,
      "694": -1.9691845178604126,
      "695": 3.9354000091552734,
      "696": -6.964962959289551,
      "697": 2.6621522903442383,
      "698": 2.456427812576294,
      "699": -3.974663019180298,
      "700": -6.7969584465026855,
      "701": 0.014062642119824886,
      "702": -3.9584860801696777,
      "703": -3.2926297187805176,
      "704": 0.9568853378295898,
      "705": -0.2241564393043518,
      "706": 4.094621658325195,
      "707": -1.2703381776809692,
      "708": 5.075954437255859,
      "709": 5.82867956161499,
      "710": -2.2741146087646484,
      "711": -4.213337421417236,
      "712": 1.4992965459823608,
      "713": -0.7922122478485107,
      "714": -7.742275238037109,
      "715": -9.07870101928711,
      "716": 11.505386352539062,
      "717": 2.6687285900115967,
      "718": -8.743269920349121,
      "719": -6.353013515472412,
      "720": 5.104366779327393,
      "721": 4.684593200683594,
      "722": 2.625924825668335,
      "723": -2.3686470985412598,
      "724": 6.386100769042969,
      "725": -6.330697536468506,
      "726": -12.281726837158203,
      "727": 2.6984896659851074,
      "728": 1.579200029373169,
      "729": 2.971251964569092,
      "730": -1.2420488595962524,
      "731": 5.893245697021484,
      "732": -5.399882793426514,
      "733": 0.5991248488426208,
      "734": -4.383332252502441,
      "735": 2.356412172317505,
      "736": 16.76555824279785,
      "737": 1.9319431781768799,
      "738": 0.636604905128479,
      "739": -2.1827392578125,
      "740": -1.357322096824646,
      "741": -1.437548041343689,
      "742": 0.13070450723171234,
      "743": 2.970458984375,
      "744": -7.4167070388793945,
      "745": -3.455540895462036,
      "746": 3.339038372039795,
      "747": 5.265242099761963,
      "748": -10.7610502243042,
      "749": -2.56152081489563,
      "750": -0.166794553399086,
      "751": 10.906667709350586,
      "752": -5.76085901260376,
      "753": -1.7146371603012085,
      "754": 11.112468719482422,
      "755": -6.71847677230835,
      "756": -7.149441242218018,
      "757": -2.3478684425354004,
      "758": -1.6782835721969604,
      "759": 5.973188400268555,
      "760": 6.000176906585693,
      "761": 0.3921196758747101,
      "762": -5.725109100341797,
      "763": -2.095344066619873,
      "764": -10.55710220336914,
      "765": -7.762514591217041,
      "766": 5.5757341384887695,
      "767": 4.376791954040527,
      "768": 1.754128098487854,
      "769": 1.396615982055664,
      "770": -4.806454658508301,
      "771": 2.8502674102783203,
      "772": -3.6553549766540527,
      "773": 7.88275146484375,
      "774": -0.5550410747528076,
      "775": 2.951167345046997,
      "776": -9.85181999206543,
      "777": 5.978179454803467,
      "778": -0.4640076458454132,
      "779": 0.4350341856479645,
      "780": 0.18066544830799103,
      "781": 9.370864868164062,
      "782": 5.520101070404053,
      "783": -0.04712362959980965,
      "784": -4.370002269744873,
      "785": -1.1911882162094116,
      "786": -7.302475452423096,
      "787": 4.3750433921813965,
      "788": 1.1573443412780762,
      "789": -7.700351238250732,
      "790": -4.359148025512695,
      "791": 3.1877450942993164,
      "792": -2.164268732070923,
      "793": -0.5083127617835999,
      "794": 1.3357700109481812,
      "795": 3.548090696334839,
      "796": -2.020758628845215,
      "797": -3.102935791015625,
      "798": 3.315178632736206,
      "799": 9.169394493103027,
      "800": -4.258084774017334,
      "801": 1.0226519107818604,
      "802": 6.376018524169922,
      "803": -8.767087936401367,
      "804": -2.550248622894287,
      "805": -8.424938201904297,
      "806": 6.747346878051758,
      "807": 4.4098734855651855,
      "808": -1.8449496030807495,
      "809": -0.6906418204307556,
      "810": 3.808687210083008,
      "811": 2.2632791996002197,
      "812": -4.733863830566406,
      "813": 3.356111764907837,
      "814": 0.11797622591257095,
      "815": -2.054222822189331,
      "816": -0.8275402784347534,
      "817": -0.595121443271637,
      "818": -5.396920680999756,
      "819": 1.0251773595809937,
      "820": 4.3864617347717285,
      "821": -7.189632892608643,
      "822": -1.020774245262146,
      "823": -1.8220371007919312,
      "824": 12.464268684387207,
      "825": -1.7643452882766724,
      "826": 3.029670000076294,
      "827": 2.7641162872314453,
      "828": 5.4932732582092285,
      "829": -6.038142204284668,
      "830": 2.15718412399292,
      "831": -0.5538159608840942,
      "832": -9.517208099365234,
      "833": 0.7972754240036011,
      "834": 1.6185126304626465,
      "835": 6.798961162567139,
      "836": -2.916196346282959,
      "837": 5.389883995056152,
      "838": -3.850705623626709,
      "839": -0.5174970030784607,
      "840": 0.12549425661563873,
      "841": 0.6770814657211304,
      "842": -1.1943659782409668,
      "843": -0.28633788228034973,
      "844": 2.711975336074829,
      "845": -1.4899296760559082,
      "846": 3.124551773071289,
      "847": -1.0588518381118774,
      "848": 0.043784644454717636,
      "849": 1.2344708442687988,
      "850": -1.708451747894287,
      "851": 1.868645429611206,
      "852": -0.36411431431770325,
      "853": 1.3574234247207642,
      "854": -0.10121066868305206,
      "855": -1.8266347646713257,
      "856": -0.23225781321525574,
      "857": -0.2975635230541229,
      "858": 1.7206850051879883,
      "859": 0.7778058052062988,
      "860": 1.0583816766738892,
      "861": 0.12878814339637756,
      "862": 0.5099866390228271,
      "863": 1.9362964630126953,
      "864": 1.9365756511688232,
      "865": 1.4610992670059204,
      "866": 1.2036423683166504,
      "867": -2.2807223796844482,
      "868": 0.5445400476455688,
      "869": -0.09482977539300919,
      "870": 0.36997151374816895,
      "871": 0.17025667428970337,
      "872": -0.8802650570869446,
      "873": 2.738471269607544,
      "874": 2.480543375015259,
      "875": -1.9737285375595093,
      "876": 1.1485986709594727,
      "877": -2.0995845794677734,
      "878": 0.4652143120765686,
      "879": 0.9264416694641113,
      "880": -0.8400529623031616,
      "881": 0.6782296299934387,
      "882": -0.6565986275672913,
      "883": 1.96372652053833,
      "884": -0.13792890310287476,
      "885": -0.8657281398773193,
      "886": 0.27446821331977844,
      "887": -0.5682797431945801,
      "888": -1.7814668416976929,
      "889": -4.317241668701172,
      "890": 0.8289461135864258,
      "891": 0.3237306773662567,
      "892": -0.48137179017066956,
      "893": 3.1461269855499268,
      "894": 0.5761616230010986,
      "895": 2.169445753097534,
      "896": 0.285677433013916,
      "897": -1.638890027999878,
      "898": -1.1123934984207153,
      "899": -1.5196726322174072,
      "900": -0.0018809831235557795,
      "901": -0.010876564309000969,
      "902": 0.042725298553705215,
      "903": -0.029622135683894157,
      "904": -0.03609335795044899,
      "905": 0.0214117132127285,
      "906": -0.0023942168336361647,
      "907": -0.04495696723461151,
      "908": -0.06081240996718407,
      "909": 0.00851021520793438,
      "910": 0.03687306120991707,
      "911": 0.036546844989061356,
      "912": 0.07516488432884216,
      "913": -0.06624779850244522,
      "914": -0.058152828365564346,
      "915": 0.06808245182037354,
      "916": -0.07044974714517593,
      "917": 0.024546174332499504,
      "918": 0.020045001059770584,
      "919": 0.019214317202568054,
      "920": 0.047612763941287994,
      "921": 0.03216451033949852,
      "922": -0.04392292723059654,
      "923": -0.06116608530282974,
      "924": -0.004052849020808935,
      "925": 0.021084202453494072,
      "926": 0.025772908702492714,
      "927": -0.05235298350453377,
      "928": 0.0320136696100235,
      "929": 0.06415987759828568
    }
  },
  "hiddenLayers": [
    {
      "inputMatrix": {
        "rows": 20,
        "columns": 30,
        "weights": {
          "0": 0.23860934376716614,
          "1": -0.13663606345653534,
          "2": -0.6560759544372559,
          "3": -1.9223114252090454,
          "4": 2.4817354679107666,
          "5": 0.5942113995552063,
          "6": -1.7973994016647339,
          "7": 1.5341302156448364,
          "8": 0.3772887885570526,
          "9": 2.8533008098602295,
          "10": 1.6986303329467773,
          "11": 1.7556722164154053,
          "12": -1.4732002019882202,
          "13": -0.8027355074882507,
          "14": -0.9221591353416443,
          "15": -0.9662940502166748,
          "16": 0.7065565586090088,
          "17": -0.3645947277545929,
          "18": 0.2384212166070938,
          "19": -0.7453805208206177,
          "20": 0.6728565692901611,
          "21": -0.6327303051948547,
          "22": -0.15666010975837708,
          "23": 0.44807785749435425,
          "24": -1.116876244544983,
          "25": 0.6031798720359802,
          "26": -1.1068052053451538,
          "27": 2.4189467430114746,
          "28": -0.6994089484214783,
          "29": 2.7703239917755127,
          "30": 1.233163595199585,
          "31": 2.0722687244415283,
          "32": 0.8617172837257385,
          "33": 1.8569415807724,
          "34": 1.8388962745666504,
          "35": -0.19213512539863586,
          "36": -0.3358824551105499,
          "37": -0.2747237980365753,
          "38": -0.6795114278793335,
          "39": 0.8733174204826355,
          "40": 0.42917439341545105,
          "41": -0.032612238079309464,
          "42": -0.7998306751251221,
          "43": -0.7577491998672485,
          "44": -0.6439005732536316,
          "45": -1.045993447303772,
          "46": 1.6662346124649048,
          "47": 1.2950549125671387,
          "48": 0.16687192022800446,
          "49": -1.3062410354614258,
          "50": -3.651355743408203,
          "51": -0.3326775133609772,
          "52": -0.9585925936698914,
          "53": -0.9091533422470093,
          "54": 0.20258311927318573,
          "55": -0.3085578382015228,
          "56": 2.69439697265625,
          "57": 1.0228984355926514,
          "58": -1.2402310371398926,
          "59": -0.5844437479972839,
          "60": -0.7873633503913879,
          "61": -0.8815056681632996,
          "62": 0.37890493869781494,
          "63": -1.0999934673309326,
          "64": -0.04605560749769211,
          "65": -0.17354267835617065,
          "66": 3.6999518871307373,
          "67": -0.6456998586654663,
          "68": 0.26406341791152954,
          "69": 0.9920942783355713,
          "70": -1.2945890426635742,
          "71": 1.3318296670913696,
          "72": 1.1090723276138306,
          "73": 1.9462555646896362,
          "74": 0.2396991103887558,
          "75": -0.7191100120544434,
          "76": -2.3015084266662598,
          "77": -0.30222031474113464,
          "78": 0.5286352038383484,
          "79": -0.6349703669548035,
          "80": 2.6261351108551025,
          "81": 1.5702036619186401,
          "82": -1.2795839309692383,
          "83": -0.3927534222602844,
          "84": 1.1052838563919067,
          "85": 0.20326048135757446,
          "86": 0.775323212146759,
          "87": -2.307563066482544,
          "88": 1.0175257921218872,
          "89": 0.09690596163272858,
          "90": 1.306618332862854,
          "91": 0.1255941390991211,
          "92": 0.8092733025550842,
          "93": 2.5783298015594482,
          "94": -2.0175981521606445,
          "95": 1.2684093713760376,
          "96": 0.8238081336021423,
          "97": -0.22938284277915955,
          "98": -1.0559375286102295,
          "99": 0.08338455855846405,
          "100": -0.660338282585144,
          "101": -0.009783231653273106,
          "102": -0.16443964838981628,
          "103": -0.2811684310436249,
          "104": 0.046079520136117935,
          "105": 1.0333459377288818,
          "106": 1.260459303855896,
          "107": 0.15623998641967773,
          "108": -1.3984248638153076,
          "109": -1.6425544023513794,
          "110": -0.36406633257865906,
          "111": -0.9992533922195435,
          "112": -0.5380855798721313,
          "113": 1.7980552911758423,
          "114": -1.0107790231704712,
          "115": -0.07771813869476318,
          "116": 1.137986183166504,
          "117": -0.2966468632221222,
          "118": -0.7218958139419556,
          "119": -0.737714946269989,
          "120": 1.7892874479293823,
          "121": -0.4675133526325226,
          "122": 0.6575250029563904,
          "123": 1.1908565759658813,
          "124": 0.2808748185634613,
          "125": 0.3128565549850464,
          "126": 1.4220188856124878,
          "127": 0.14514537155628204,
          "128": -0.2816632091999054,
          "129": 1.4764072895050049,
          "130": 0.14584358036518097,
          "131": 0.9423633217811584,
          "132": -0.12200379371643066,
          "133": 0.018274636939167976,
          "134": -1.5135785341262817,
          "135": 0.8861216902732849,
          "136": -0.11764589697122574,
          "137": -1.869018316268921,
          "138": 0.4504000246524811,
          "139": -0.1636209636926651,
          "140": -0.8927417397499084,
          "141": -0.7678152918815613,
          "142": -0.8727113604545593,
          "143": 2.7529659271240234,
          "144": -1.7924085855484009,
          "145": 1.0268354415893555,
          "146": 1.8267688751220703,
          "147": -2.2790379524230957,
          "148": 2.865482807159424,
          "149": 0.1289667785167694,
          "150": 1.1626116037368774,
          "151": 1.4981589317321777,
          "152": 0.71437668800354,
          "153": -0.4222337305545807,
          "154": -0.8743822574615479,
          "155": 1.9933364391326904,
          "156": 0.7025661468505859,
          "157": 2.363201856613159,
          "158": 2.1070809364318848,
          "159": -0.14701160788536072,
          "160": -2.2835512161254883,
          "161": 3.1563162803649902,
          "162": -0.9243837594985962,
          "163": 0.6285032033920288,
          "164": -0.8068603873252869,
          "165": 0.8485788702964783,
          "166": 1.1073280572891235,
          "167": -2.146385908126831,
          "168": 1.5181207656860352,
          "169": 1.7018364667892456,
          "170": -0.02930516190826893,
          "171": 0.3475843667984009,
          "172": 0.8840463757514954,
          "173": 1.0658600330352783,
          "174": -0.49332472681999207,
          "175": -1.5549265146255493,
          "176": 2.0433685779571533,
          "177": 1.159628987312317,
          "178": 1.334269642829895,
          "179": 2.2416017055511475,
          "180": -0.02781868353486061,
          "181": -1.3507723808288574,
          "182": 1.2058565616607666,
          "183": 0.6928542256355286,
          "184": -0.8304501175880432,
          "185": -0.9324530959129333,
          "186": -1.3814256191253662,
          "187": 1.7526226043701172,
          "188": -1.0523179769515991,
          "189": -1.1467630863189697,
          "190": 1.1832058429718018,
          "191": -1.5148156881332397,
          "192": -1.6673839092254639,
          "193": -1.813438057899475,
          "194": 1.4658691883087158,
          "195": 1.9294646978378296,
          "196": 0.8700965046882629,
          "197": 0.3537629544734955,
          "198": 0.3645990490913391,
          "199": 2.4191524982452393,
          "200": -0.18941965699195862,
          "201": 1.8197073936462402,
          "202": 0.913135826587677,
          "203": -2.5674734115600586,
          "204": -1.712025761604309,
          "205": -3.152892827987671,
          "206": 1.3286420106887817,
          "207": 0.10185468941926956,
          "208": -1.9312145709991455,
          "209": -0.8576314449310303,
          "210": -0.33595389127731323,
          "211": 0.08818238228559494,
          "212": -0.4253004491329193,
          "213": -2.167482614517212,
          "214": 0.8424271941184998,
          "215": 0.1884603500366211,
          "216": -0.5774855613708496,
          "217": 0.10833360254764557,
          "218": 0.6137508153915405,
          "219": 0.16774971783161163,
          "220": -0.18684469163417816,
          "221": -0.1706545054912567,
          "222": -0.18179060518741608,
          "223": 1.3900965452194214,
          "224": -0.30760738253593445,
          "225": -0.5452030897140503,
          "226": 0.5079025626182556,
          "227": 0.8434174060821533,
          "228": -0.8642855882644653,
          "229": -0.13593129813671112,
          "230": 1.3990623950958252,
          "231": 0.7021806240081787,
          "232": 0.10851849615573883,
          "233": -0.19227398931980133,
          "234": -1.1226303577423096,
          "235": 0.24179285764694214,
          "236": -0.13481518626213074,
          "237": 0.37818530201911926,
          "238": 0.41652712225914,
          "239": 1.0017995834350586,
          "240": -0.9775674939155579,
          "241": -2.5066914558410645,
          "242": 0.31549617648124695,
          "243": 0.5552851557731628,
          "244": -0.2768538296222687,
          "245": -2.2827200889587402,
          "246": 0.08000586926937103,
          "247": 0.8204591274261475,
          "248": -0.3377375900745392,
          "249": 0.050123199820518494,
          "250": 0.7441828846931458,
          "251": -1.7527962923049927,
          "252": 0.9351366758346558,
          "253": -1.8388742208480835,
          "254": 1.7973085641860962,
          "255": 0.6336357593536377,
          "256": -1.1012581586837769,
          "257": 0.4199584424495697,
          "258": 1.3385227918624878,
          "259": -0.4212862551212311,
          "260": 1.1673394441604614,
          "261": 0.3009724020957947,
          "262": 0.4570324420928955,
          "263": -1.2373310327529907,
          "264": 0.2318090796470642,
          "265": -0.7585722804069519,
          "266": -3.188645839691162,
          "267": 2.129974842071533,
          "268": 0.9742726683616638,
          "269": -0.35668158531188965,
          "270": 0.8346031308174133,
          "271": 0.06969128549098969,
          "272": 1.499609112739563,
          "273": -0.6916965842247009,
          "274": 0.2682395875453949,
          "275": 0.6225729584693909,
          "276": 0.9675928354263306,
          "277": -0.7228286862373352,
          "278": 0.7816753387451172,
          "279": -0.2892571985721588,
          "280": -1.3455188274383545,
          "281": 1.5684610605239868,
          "282": -0.2831372618675232,
          "283": 1.5729014873504639,
          "284": -0.8788813948631287,
          "285": 0.27058351039886475,
          "286": -0.1824512779712677,
          "287": -2.51495099067688,
          "288": -1.6077804565429688,
          "289": 0.13360846042633057,
          "290": 1.1623684167861938,
          "291": -1.4758594036102295,
          "292": 0.11960691213607788,
          "293": 0.7716056108474731,
          "294": -0.11943074315786362,
          "295": 0.6019360423088074,
          "296": 0.8859108090400696,
          "297": -2.784771203994751,
          "298": 2.3204524517059326,
          "299": 0.007879450917243958,
          "300": 1.904768466949463,
          "301": 1.3454585075378418,
          "302": 1.5099281072616577,
          "303": -3.654844284057617,
          "304": -1.0523823499679565,
          "305": -0.2781182825565338,
          "306": -1.351274013519287,
          "307": 2.34033465385437,
          "308": 0.7562282085418701,
          "309": -2.2303543090820312,
          "310": -0.20259378850460052,
          "311": 1.2014864683151245,
          "312": -1.2141369581222534,
          "313": -0.9611836671829224,
          "314": -2.448167562484741,
          "315": 1.8951998949050903,
          "316": 2.4469337463378906,
          "317": 0.43439406156539917,
          "318": -0.16218118369579315,
          "319": 1.079867959022522,
          "320": -1.428881049156189,
          "321": -2.3644120693206787,
          "322": 1.1997296810150146,
          "323": 1.2650022506713867,
          "324": 0.744159996509552,
          "325": -0.9585399031639099,
          "326": -0.7617539763450623,
          "327": 1.5660251379013062,
          "328": 0.05523300543427467,
          "329": 1.7831565141677856,
          "330": 1.7483235597610474,
          "331": 0.9181724190711975,
          "332": 0.4589252471923828,
          "333": -0.8120294213294983,
          "334": -0.43313369154930115,
          "335": 1.343612790107727,
          "336": -2.0708372592926025,
          "337": 1.1729891300201416,
          "338": 1.189031958580017,
          "339": -0.2955096662044525,
          "340": -0.3531879484653473,
          "341": 0.44336193799972534,
          "342": -1.0679360628128052,
          "343": 0.04983067139983177,
          "344": -1.076462745666504,
          "345": 0.7217414379119873,
          "346": 1.3260257244110107,
          "347": -0.4493401050567627,
          "348": -0.1733560562133789,
          "349": 0.03717750683426857,
          "350": -0.7450867891311646,
          "351": -0.8458801507949829,
          "352": 0.2832743227481842,
          "353": -0.2548363208770752,
          "354": -1.3066920042037964,
          "355": -0.06786217540502548,
          "356": 0.6299842596054077,
          "357": 1.64634370803833,
          "358": -0.3516075611114502,
          "359": 1.6623926162719727,
          "360": -0.3380608558654785,
          "361": -0.7599620819091797,
          "362": 0.059998635202646255,
          "363": -0.5779147148132324,
          "364": -0.6007351875305176,
          "365": 1.862921118736267,
          "366": -0.31224218010902405,
          "367": -0.30698832869529724,
          "368": -0.4635184407234192,
          "369": -1.0224050283432007,
          "370": -0.0339435450732708,
          "371": -0.8896224498748779,
          "372": 0.8506085276603699,
          "373": 0.638745129108429,
          "374": 0.10005755722522736,
          "375": 0.6267894506454468,
          "376": -0.5699279308319092,
          "377": 0.18610553443431854,
          "378": -1.081375002861023,
          "379": -0.5204626321792603,
          "380": 1.2001168727874756,
          "381": 0.05757785961031914,
          "382": 0.3934487998485565,
          "383": -1.4344068765640259,
          "384": -2.226271629333496,
          "385": -0.11175417900085449,
          "386": -0.15630033612251282,
          "387": -0.26284635066986084,
          "388": 1.6208522319793701,
          "389": -0.6727471947669983,
          "390": -0.5160890817642212,
          "391": 0.13571637868881226,
          "392": -0.4452599883079529,
          "393": -2.0910704135894775,
          "394": -1.152777910232544,
          "395": 0.7974966168403625,
          "396": 1.189605712890625,
          "397": 0.6864824891090393,
          "398": 1.0432058572769165,
          "399": -0.6399461030960083,
          "400": -0.6262873411178589,
          "401": 1.865572214126587,
          "402": -0.2939900755882263,
          "403": 0.6610773801803589,
          "404": 0.7156804203987122,
          "405": 0.9387053847312927,
          "406": -0.1847701221704483,
          "407": -0.4884125590324402,
          "408": -2.358541488647461,
          "409": -0.1454501748085022,
          "410": 1.6364699602127075,
          "411": 1.277065396308899,
          "412": 1.4891170263290405,
          "413": -0.2977125346660614,
          "414": 1.1694047451019287,
          "415": 0.5325678586959839,
          "416": -0.9121053814888,
          "417": 2.070420026779175,
          "418": 0.8813480734825134,
          "419": 2.320530414581299,
          "420": 0.2707970440387726,
          "421": 2.055049180984497,
          "422": -0.6996495127677917,
          "423": -0.39670559763908386,
          "424": 0.8871122598648071,
          "425": -0.03408098593354225,
          "426": -2.984590768814087,
          "427": -0.5582497119903564,
          "428": -0.05225929617881775,
          "429": -0.41814926266670227,
          "430": -0.46555888652801514,
          "431": -0.688347339630127,
          "432": -0.8376924991607666,
          "433": -1.2623622417449951,
          "434": -0.33333882689476013,
          "435": -0.12855230271816254,
          "436": 1.6992392539978027,
          "437": 1.4681888818740845,
          "438": -0.0865824744105339,
          "439": 0.99186110496521,
          "440": -1.6391403675079346,
          "441": 0.3685269355773926,
          "442": 1.0490028858184814,
          "443": -1.601540207862854,
          "444": 0.004803753457963467,
          "445": 0.18533070385456085,
          "446": 1.3819968700408936,
          "447": 3.083545446395874,
          "448": -1.543948769569397,
          "449": -0.012725021690130234,
          "450": 0.38538292050361633,
          "451": -1.686058521270752,
          "452": 1.1052228212356567,
          "453": 0.8476806282997131,
          "454": -0.4714246988296509,
          "455": 0.2941182851791382,
          "456": 0.4034307301044464,
          "457": 0.5710260272026062,
          "458": -0.9201042056083679,
          "459": -0.21293358504772186,
          "460": 0.022527623921632767,
          "461": 2.0711259841918945,
          "462": 0.967187762260437,
          "463": -1.7203253507614136,
          "464": 0.770988404750824,
          "465": 0.6025850176811218,
          "466": -1.1804578304290771,
          "467": -1.466123342514038,
          "468": 0.6219159364700317,
          "469": 1.194244146347046,
          "470": 0.6539689302444458,
          "471": -0.9903676509857178,
          "472": -0.5953047275543213,
          "473": -1.1131831407546997,
          "474": 0.3040102422237396,
          "475": -0.4124893844127655,
          "476": -0.9904991388320923,
          "477": -1.7105814218521118,
          "478": 1.5435277223587036,
          "479": 0.08567649871110916,
          "480": -0.7013771533966064,
          "481": -1.4346123933792114,
          "482": -0.9670969247817993,
          "483": 0.020578106865286827,
          "484": 0.6155024766921997,
          "485": -1.0038375854492188,
          "486": 2.445319890975952,
          "487": -1.107060432434082,
          "488": -0.3945847749710083,
          "489": 0.5688093900680542,
          "490": -0.19412048161029816,
          "491": 1.1207208633422852,
          "492": 1.3378410339355469,
          "493": 1.3439387083053589,
          "494": 0.20430341362953186,
          "495": -0.8766218423843384,
          "496": -1.1536064147949219,
          "497": -0.3847746253013611,
          "498": -0.23705150187015533,
          "499": -1.0867259502410889,
          "500": 1.1617255210876465,
          "501": 1.6170655488967896,
          "502": -0.21803638339042664,
          "503": 0.7957870364189148,
          "504": 0.4832759201526642,
          "505": 1.199499487876892,
          "506": 0.33321964740753174,
          "507": -3.158639430999756,
          "508": 0.9205532073974609,
          "509": 0.12268216162919998,
          "510": -1.1353638172149658,
          "511": -0.8300909996032715,
          "512": 0.21187357604503632,
          "513": -0.8043642640113831,
          "514": 0.10189255326986313,
          "515": -1.0572288036346436,
          "516": -0.47991856932640076,
          "517": 0.9833638072013855,
          "518": 0.20923320949077606,
          "519": -0.30609264969825745,
          "520": -1.161322832107544,
          "521": -1.5924267768859863,
          "522": 0.7321385741233826,
          "523": -0.7283651828765869,
          "524": 2.4697470664978027,
          "525": -0.120707668364048,
          "526": -1.797113060951233,
          "527": -0.10268324613571167,
          "528": 1.259565830230713,
          "529": 1.0394235849380493,
          "530": 0.5974093079566956,
          "531": 1.4180724620819092,
          "532": 0.8442264795303345,
          "533": -1.929563283920288,
          "534": -0.31311577558517456,
          "535": -1.4765750169754028,
          "536": -0.6056563854217529,
          "537": 3.392148733139038,
          "538": -0.5344581007957458,
          "539": -0.004765762947499752,
          "540": 0.437207967042923,
          "541": -1.0250749588012695,
          "542": 1.3068870306015015,
          "543": -0.00960345659404993,
          "544": -0.8765852451324463,
          "545": -0.7003182768821716,
          "546": 0.6078870296478271,
          "547": -0.7327682375907898,
          "548": 0.1870056539773941,
          "549": 0.7669718861579895,
          "550": -0.6195136904716492,
          "551": 1.2031958103179932,
          "552": 1.1464054584503174,
          "553": -2.759373188018799,
          "554": -0.6429145336151123,
          "555": 1.269995927810669,
          "556": 0.5758610367774963,
          "557": -1.204826831817627,
          "558": 1.8547306060791016,
          "559": 0.8227022290229797,
          "560": -2.7746710777282715,
          "561": -3.6606955528259277,
          "562": -0.6293700337409973,
          "563": 1.0095455646514893,
          "564": 0.23373308777809143,
          "565": -0.42164820432662964,
          "566": -0.18236418068408966,
          "567": -0.6686959266662598,
          "568": 0.754396915435791,
          "569": -0.7883039712905884,
          "570": 0.4160025715827942,
          "571": -0.7897132039070129,
          "572": 2.200402021408081,
          "573": 0.33065006136894226,
          "574": -2.5449957847595215,
          "575": 1.2598609924316406,
          "576": -1.0427799224853516,
          "577": 1.925100326538086,
          "578": 0.8212963938713074,
          "579": -1.7255319356918335,
          "580": 1.1850227117538452,
          "581": -0.453317254781723,
          "582": 0.8417338132858276,
          "583": -0.268805593252182,
          "584": -1.5134308338165283,
          "585": 3.3859047889709473,
          "586": -1.1734164953231812,
          "587": -1.0676461458206177,
          "588": 1.6502326726913452,
          "589": -0.24493442475795746,
          "590": -0.556747555732727,
          "591": -1.031201958656311,
          "592": -0.2447638064622879,
          "593": 0.5706249475479126,
          "594": -1.3768277168273926,
          "595": -1.3702119588851929,
          "596": 1.601315975189209,
          "597": 0.6301106810569763,
          "598": 2.230311393737793,
          "599": 1.625498652458191
        }
      },
      "inputHidden": {
        "rows": 20,
        "columns": 20,
        "weights": {
          "0": -1.0312538146972656,
          "1": 0.4501231014728546,
          "2": -0.5674289464950562,
          "3": -0.45577529072761536,
          "4": 0.3500707149505615,
          "5": -2.3603687286376953,
          "6": -0.5831189155578613,
          "7": -0.3340720236301422,
          "8": -1.265251874923706,
          "9": 1.5174062252044678,
          "10": -0.7191254496574402,
          "11": 0.12499238550662994,
          "12": -0.23548682034015656,
          "13": 0.16665980219841003,
          "14": 0.47500500082969666,
          "15": -3.415724515914917,
          "16": -0.7315216660499573,
          "17": 0.26573750376701355,
          "18": -1.589737057685852,
          "19": -4.23665714263916,
          "20": -0.5191036462783813,
          "21": -1.8340314626693726,
          "22": 0.8965908885002136,
          "23": -0.8383533358573914,
          "24": -1.0263017416000366,
          "25": 1.2693965435028076,
          "26": 1.4975032806396484,
          "27": 2.2038066387176514,
          "28": 1.5827828645706177,
          "29": 1.8045618534088135,
          "30": 0.21449027955532074,
          "31": -0.18997453153133392,
          "32": 2.0881848335266113,
          "33": -0.15643227100372314,
          "34": 0.3626853823661804,
          "35": 1.0994614362716675,
          "36": -0.7685329914093018,
          "37": -0.03547019138932228,
          "38": 0.341971755027771,
          "39": -0.564741313457489,
          "40": -0.8675404787063599,
          "41": 0.007126337848603725,
          "42": 0.49318036437034607,
          "43": 0.4785003364086151,
          "44": -0.3371247947216034,
          "45": -0.9803023934364319,
          "46": 1.8684026002883911,
          "47": -0.485355406999588,
          "48": 0.3201250731945038,
          "49": -1.0810377597808838,
          "50": -0.6851627230644226,
          "51": 2.2009003162384033,
          "52": -1.2071470022201538,
          "53": -1.026497483253479,
          "54": 0.2961597740650177,
          "55": -0.0029704293701797724,
          "56": 0.8998389840126038,
          "57": 0.9054290056228638,
          "58": 0.28788959980010986,
          "59": 0.7101390361785889,
          "60": -1.26021146774292,
          "61": -0.09562860429286957,
          "62": 1.0186870098114014,
          "63": -1.478494644165039,
          "64": -2.172666311264038,
          "65": 0.15503272414207458,
          "66": 0.22380173206329346,
          "67": 4.44100284576416,
          "68": 0.8577622771263123,
          "69": 5.587491512298584,
          "70": -0.38517963886260986,
          "71": -2.6424953937530518,
          "72": 0.8184196352958679,
          "73": -0.3590855598449707,
          "74": -2.9617178440093994,
          "75": 1.8818539381027222,
          "76": -3.3057994842529297,
          "77": 0.8586289882659912,
          "78": 2.823805093765259,
          "79": -0.7481382489204407,
          "80": 0.1424558162689209,
          "81": 0.3635248839855194,
          "82": 2.107379674911499,
          "83": 0.5662800073623657,
          "84": 0.7179819345474243,
          "85": 0.10180369764566422,
          "86": 0.06447289139032364,
          "87": -0.6108354926109314,
          "88": 0.5550708770751953,
          "89": -1.1513720750808716,
          "90": 1.2798413038253784,
          "91": -0.023867594078183174,
          "92": -0.11006107926368713,
          "93": -0.31012657284736633,
          "94": 0.01815338432788849,
          "95": 0.4939958155155182,
          "96": 0.5702488422393799,
          "97": 0.8592464923858643,
          "98": -0.3935665786266327,
          "99": 0.8097221851348877,
          "100": -1.5282155275344849,
          "101": 2.4857335090637207,
          "102": 0.6689684987068176,
          "103": -0.6238816976547241,
          "104": -2.1862599849700928,
          "105": 0.7326959371566772,
          "106": -1.5172346830368042,
          "107": 0.4425410330295563,
          "108": -0.39920487999916077,
          "109": 1.5424299240112305,
          "110": 1.5273408889770508,
          "111": 0.6396413445472717,
          "112": 1.794983983039856,
          "113": -2.453433036804199,
          "114": 0.22494898736476898,
          "115": -0.6529101729393005,
          "116": -1.6508311033248901,
          "117": 0.5206936597824097,
          "118": 0.09885451942682266,
          "119": -0.2116192728281021,
          "120": -0.41368046402931213,
          "121": -0.31581544876098633,
          "122": 0.6595364212989807,
          "123": 2.182853937149048,
          "124": 0.6169402599334717,
          "125": 1.2684606313705444,
          "126": 1.2745946645736694,
          "127": -2.3116614818573,
          "128": -0.7365847229957581,
          "129": -1.0444883108139038,
          "130": 0.38921865820884705,
          "131": 0.5277458429336548,
          "132": -0.9585666060447693,
          "133": -1.5968507528305054,
          "134": -0.9262102842330933,
          "135": -0.35457101464271545,
          "136": 0.12747830152511597,
          "137": 0.9419879913330078,
          "138": 0.6521512866020203,
          "139": 0.0728381872177124,
          "140": 0.6277427077293396,
          "141": -0.7910600304603577,
          "142": 2.201752185821533,
          "143": -0.15595056116580963,
          "144": -3.8417232036590576,
          "145": -1.1594241857528687,
          "146": -0.020615946501493454,
          "147": 1.9666136503219604,
          "148": 0.8689342737197876,
          "149": 7.083818435668945,
          "150": -0.528026282787323,
          "151": 0.6731517910957336,
          "152": 4.4937357902526855,
          "153": -0.11260321736335754,
          "154": 4.0440850257873535,
          "155": 1.3490241765975952,
          "156": -4.157607078552246,
          "157": -1.8504809141159058,
          "158": -0.9531700611114502,
          "159": -1.5459439754486084,
          "160": -0.7133153676986694,
          "161": 1.560601830482483,
          "162": 0.8635966181755066,
          "163": 1.770140290260315,
          "164": -1.9034874439239502,
          "165": -0.4185124635696411,
          "166": -0.358445405960083,
          "167": 0.7729973196983337,
          "168": 0.7608616352081299,
          "169": 0.34144261479377747,
          "170": -0.4759369492530823,
          "171": -0.29809024930000305,
          "172": 0.4867686331272125,
          "173": -0.5582888722419739,
          "174": 0.6639693975448608,
          "175": -1.358433723449707,
          "176": -0.4078407287597656,
          "177": 0.6315796375274658,
          "178": 0.6713365316390991,
          "179": -1.263440728187561,
          "180": -0.24188829958438873,
          "181": 0.9617928862571716,
          "182": 1.114943265914917,
          "183": 0.7959293127059937,
          "184": 0.8637246489524841,
          "185": -0.669072151184082,
          "186": -0.480184942483902,
          "187": -0.010204394347965717,
          "188": 2.434478282928467,
          "189": -1.4955459833145142,
          "190": 0.21372415125370026,
          "191": 0.13952922821044922,
          "192": -0.10204967856407166,
          "193": -1.0175622701644897,
          "194": 0.27081844210624695,
          "195": -0.07434851676225662,
          "196": 1.3584485054016113,
          "197": 1.7745740413665771,
          "198": 0.23467455804347992,
          "199": -1.600555419921875,
          "200": -0.685793936252594,
          "201": 0.5517033934593201,
          "202": 1.1123136281967163,
          "203": -1.905685305595398,
          "204": 2.046715021133423,
          "205": -0.22079287469387054,
          "206": 0.9087503552436829,
          "207": 0.7491039633750916,
          "208": -1.3992573022842407,
          "209": -0.564551055431366,
          "210": 0.35357770323753357,
          "211": 0.26708555221557617,
          "212": 0.5180862545967102,
          "213": 1.0894248485565186,
          "214": -0.0068475836887955666,
          "215": -0.7449718713760376,
          "216": -0.234517440199852,
          "217": 0.8993933200836182,
          "218": 0.11130207031965256,
          "219": -2.1043219566345215,
          "220": 0.04963429272174835,
          "221": -1.1147942543029785,
          "222": -0.38269883394241333,
          "223": -0.9442620277404785,
          "224": 0.32423126697540283,
          "225": 0.5981772541999817,
          "226": 0.6433044672012329,
          "227": 0.17592735588550568,
          "228": -0.26624810695648193,
          "229": 0.3070071041584015,
          "230": 0.7646408081054688,
          "231": 0.1078561395406723,
          "232": 0.039133958518505096,
          "233": 0.059708066284656525,
          "234": 0.30418357253074646,
          "235": 0.24355417490005493,
          "236": -0.7225825190544128,
          "237": -0.2597798705101013,
          "238": -0.2693641781806946,
          "239": 0.6556822061538696,
          "240": -1.8675276041030884,
          "241": 0.9341930747032166,
          "242": 3.012524366378784,
          "243": 0.12122470140457153,
          "244": -2.3027195930480957,
          "245": 2.081483840942383,
          "246": -2.0190393924713135,
          "247": 3.620893716812134,
          "248": 5.919823169708252,
          "249": 1.4486362934112549,
          "250": 2.4071788787841797,
          "251": -2.035548686981201,
          "252": 0.7822499871253967,
          "253": 0.3427587151527405,
          "254": 0.7529823780059814,
          "255": 0.603469967842102,
          "256": -0.1280180960893631,
          "257": 2.2907328605651855,
          "258": 0.6243848204612732,
          "259": 1.1570119857788086,
          "260": 1.1864027976989746,
          "261": -0.5885488986968994,
          "262": 2.0624806880950928,
          "263": 1.1367558240890503,
          "264": -0.13482637703418732,
          "265": 0.8924049139022827,
          "266": -0.20266328752040863,
          "267": -0.7214963436126709,
          "268": 1.373650312423706,
          "269": 0.759887158870697,
          "270": 1.8926719427108765,
          "271": 0.8722541928291321,
          "272": -2.177090644836426,
          "273": 1.0377891063690186,
          "274": 1.1719090938568115,
          "275": 0.7551396489143372,
          "276": -0.3208485543727875,
          "277": 1.8839895725250244,
          "278": -1.707379937171936,
          "279": 0.8325366973876953,
          "280": 1.0310736894607544,
          "281": 0.8854060769081116,
          "282": -0.26737016439437866,
          "283": -1.5946969985961914,
          "284": -0.04831200838088989,
          "285": 0.6052099466323853,
          "286": 1.2626423835754395,
          "287": 2.109212636947632,
          "288": -0.7834019064903259,
          "289": 0.5058504939079285,
          "290": 4.453462600708008,
          "291": 1.615944504737854,
          "292": -0.4233548641204834,
          "293": -1.468554139137268,
          "294": 0.5465838313102722,
          "295": -0.9447594285011292,
          "296": -0.12671631574630737,
          "297": -0.15497548878192902,
          "298": -0.13596294820308685,
          "299": -1.2487335205078125,
          "300": 1.999593734741211,
          "301": 2.56847882270813,
          "302": 1.9082516431808472,
          "303": -3.4876201152801514,
          "304": -1.0507643222808838,
          "305": 1.6178613901138306,
          "306": -0.7148807048797607,
          "307": -1.768786072731018,
          "308": 1.314989686012268,
          "309": 0.41220954060554504,
          "310": 1.8996262550354004,
          "311": 4.162177562713623,
          "312": 0.2800104022026062,
          "313": -1.1272361278533936,
          "314": 2.9970901012420654,
          "315": 1.0263285636901855,
          "316": -0.36627689003944397,
          "317": -1.1308294534683228,
          "318": -0.8098569512367249,
          "319": 1.2116806507110596,
          "320": 0.6298766732215881,
          "321": -0.5562434792518616,
          "322": 1.6211752891540527,
          "323": 2.9833812713623047,
          "324": -1.35228431224823,
          "325": 0.1879759132862091,
          "326": 0.4022715091705322,
          "327": -1.248387098312378,
          "328": 3.657125234603882,
          "329": 0.9685719609260559,
          "330": 0.4510742723941803,
          "331": 1.5782489776611328,
          "332": 4.243753433227539,
          "333": -0.5659835338592529,
          "334": -0.20805691182613373,
          "335": 2.679375171661377,
          "336": -3.028285503387451,
          "337": 2.431933641433716,
          "338": -0.10242673009634018,
          "339": 1.4965927600860596,
          "340": -0.7482528686523438,
          "341": -0.369541198015213,
          "342": 0.6695854067802429,
          "343": 1.3018380403518677,
          "344": 0.6434664130210876,
          "345": -1.0699286460876465,
          "346": 4.59877347946167,
          "347": -1.9468482732772827,
          "348": -1.3787567615509033,
          "349": 1.084741234779358,
          "350": -2.512385845184326,
          "351": -0.7776304483413696,
          "352": 2.6248831748962402,
          "353": -2.0152244567871094,
          "354": -2.102712869644165,
          "355": 2.514328718185425,
          "356": -4.873165130615234,
          "357": -1.4582144021987915,
          "358": 1.9467027187347412,
          "359": -0.08135111629962921,
          "360": -1.019846796989441,
          "361": -0.8780066967010498,
          "362": 3.0773732662200928,
          "363": -0.5866318345069885,
          "364": 0.5434014201164246,
          "365": 2.126786708831787,
          "366": 0.20300258696079254,
          "367": 1.982890248298645,
          "368": 1.851132869720459,
          "369": -1.4501088857650757,
          "370": -1.0339332818984985,
          "371": -0.8146174550056458,
          "372": 2.75583815574646,
          "373": 0.9884867072105408,
          "374": 0.6917843818664551,
          "375": 1.7612431049346924,
          "376": 1.6022570133209229,
          "377": 1.2106492519378662,
          "378": 0.09948050230741501,
          "379": 0.3380494713783264,
          "380": 0.08097280561923981,
          "381": 0.525787889957428,
          "382": -0.3060652017593384,
          "383": -0.9680817723274231,
          "384": 0.14444293081760406,
          "385": -0.2135477066040039,
          "386": -1.0159939527511597,
          "387": 1.7557158470153809,
          "388": -0.4409675896167755,
          "389": -0.5677906274795532,
          "390": -2.368027448654175,
          "391": 0.319903701543808,
          "392": 0.04905170202255249,
          "393": -1.4518202543258667,
          "394": -1.2928431034088135,
          "395": 1.4390232563018799,
          "396": -1.4827702045440674,
          "397": -0.9437254667282104,
          "398": -0.16973920166492462,
          "399": 0.11279001832008362
        }
      },
      "inputBias": {
        "rows": 20,
        "columns": 1,
        "weights": {
          "0": -0.5599362254142761,
          "1": 0.9336042404174805,
          "2": -0.6062890291213989,
          "3": -3.5795416831970215,
          "4": -1.2271426916122437,
          "5": -0.1810823231935501,
          "6": 0.5003941655158997,
          "7": -0.18790599703788757,
          "8": -1.8381202220916748,
          "9": -0.7760461568832397,
          "10": 0.5139291286468506,
          "11": -0.012055479921400547,
          "12": -0.3067127764225006,
          "13": -2.111896514892578,
          "14": 0.032350435853004456,
          "15": -0.46995311975479126,
          "16": -0.607448160648346,
          "17": -1.5329314470291138,
          "18": 0.5914521813392639,
          "19": -0.5478944778442383
        }
      },
      "forgetMatrix": {
        "rows": 20,
        "columns": 30,
        "weights": {
          "0": 1.200443148612976,
          "1": 0.606333315372467,
          "2": 1.3761366605758667,
          "3": 0.47776058316230774,
          "4": -0.1835915446281433,
          "5": -0.43007591366767883,
          "6": 0.020078908652067184,
          "7": 0.11171787977218628,
          "8": 0.5381890535354614,
          "9": 0.7528756260871887,
          "10": -0.47974511981010437,
          "11": 1.8494082689285278,
          "12": -0.4183560311794281,
          "13": -0.9397547245025635,
          "14": -1.5956532955169678,
          "15": 0.5300903916358948,
          "16": 1.5817570686340332,
          "17": -0.7860617637634277,
          "18": 0.771873414516449,
          "19": -1.977198839187622,
          "20": -1.6596455574035645,
          "21": -1.883873462677002,
          "22": -0.5178820490837097,
          "23": 0.9844693541526794,
          "24": -0.08167702704668045,
          "25": -0.7876824736595154,
          "26": 0.6148088574409485,
          "27": -0.2753065824508667,
          "28": 0.2694746255874634,
          "29": -0.12936557829380035,
          "30": -0.09427426755428314,
          "31": 0.16032646596431732,
          "32": 0.2136187106370926,
          "33": -2.4194836616516113,
          "34": 0.06958018243312836,
          "35": -1.2925456762313843,
          "36": -0.11112833023071289,
          "37": 1.3970861434936523,
          "38": 1.5847793817520142,
          "39": -2.815478563308716,
          "40": -0.08669865131378174,
          "41": 1.025744080543518,
          "42": -1.7412703037261963,
          "43": 1.377838373184204,
          "44": -0.9563340544700623,
          "45": -0.22180630266666412,
          "46": 0.024818679317831993,
          "47": 0.6907389760017395,
          "48": 0.014509460888803005,
          "49": 0.39268243312835693,
          "50": -0.4269203245639801,
          "51": -0.7122020125389099,
          "52": 3.825874090194702,
          "53": -0.20766901969909668,
          "54": 1.7262390851974487,
          "55": -1.9988325834274292,
          "56": -1.1570218801498413,
          "57": 1.0775507688522339,
          "58": 0.38236913084983826,
          "59": 0.7453538775444031,
          "60": -1.2509883642196655,
          "61": -0.6628811955451965,
          "62": -0.9880106449127197,
          "63": 0.8170597553253174,
          "64": 0.3591077923774719,
          "65": -1.3975595235824585,
          "66": -0.6347007751464844,
          "67": -0.7331032156944275,
          "68": -0.5862607359886169,
          "69": 0.37742504477500916,
          "70": 1.9870333671569824,
          "71": -1.1557449102401733,
          "72": 2.2550954818725586,
          "73": -0.6372071504592896,
          "74": -0.5823334455490112,
          "75": -0.6314235925674438,
          "76": -0.8722759485244751,
          "77": 1.7559767961502075,
          "78": -0.895069420337677,
          "79": -2.0758602619171143,
          "80": -0.44913673400878906,
          "81": 0.7310693860054016,
          "82": -1.3395979404449463,
          "83": 0.8865402936935425,
          "84": -0.41003578901290894,
          "85": 0.440070241689682,
          "86": -0.7830101251602173,
          "87": -0.04569309577345848,
          "88": 0.14872580766677856,
          "89": -0.7200638055801392,
          "90": 0.6434504985809326,
          "91": 0.3317456841468811,
          "92": 1.9263783693313599,
          "93": 0.620553195476532,
          "94": -0.823368489742279,
          "95": 2.1165592670440674,
          "96": -1.5175544023513794,
          "97": 0.8796564936637878,
          "98": -0.3105565905570984,
          "99": -1.7911211252212524,
          "100": -1.864201545715332,
          "101": -1.3636871576309204,
          "102": -0.01296094711869955,
          "103": -1.2492457628250122,
          "104": 0.5744833946228027,
          "105": 1.4242335557937622,
          "106": -0.964347243309021,
          "107": -1.3301706314086914,
          "108": 0.6255472898483276,
          "109": 1.4157065153121948,
          "110": 0.5731321573257446,
          "111": -0.6714497208595276,
          "112": 0.9404218792915344,
          "113": -0.8089598417282104,
          "114": -2.2905757427215576,
          "115": -0.8769876956939697,
          "116": 1.3222371339797974,
          "117": 1.357391119003296,
          "118": -0.6574620008468628,
          "119": 0.07639274001121521,
          "120": -0.9714134931564331,
          "121": -1.471167802810669,
          "122": -0.9487718343734741,
          "123": 0.0441725067794323,
          "124": 0.14067180454730988,
          "125": -1.688014030456543,
          "126": 1.1308705806732178,
          "127": 0.36212220788002014,
          "128": -0.10937678068876266,
          "129": 1.509695053100586,
          "130": 0.8836936354637146,
          "131": 0.4883425235748291,
          "132": 0.46650823950767517,
          "133": 1.030629277229309,
          "134": 0.9304527640342712,
          "135": 0.14771580696105957,
          "136": -1.1042450666427612,
          "137": -0.049144111573696136,
          "138": -0.7296726107597351,
          "139": -0.7829176783561707,
          "140": 1.066511631011963,
          "141": 0.8028007745742798,
          "142": -1.6023420095443726,
          "143": 0.9739389419555664,
          "144": 0.7222881317138672,
          "145": -0.43463632464408875,
          "146": -1.1135456562042236,
          "147": -1.3548221588134766,
          "148": 0.34526053071022034,
          "149": 0.2511920630931854,
          "150": 0.9601390957832336,
          "151": 1.7858189344406128,
          "152": 0.47354722023010254,
          "153": -0.40737277269363403,
          "154": 0.3475458323955536,
          "155": 2.013925790786743,
          "156": -1.5349615812301636,
          "157": -0.5322243571281433,
          "158": -0.23255819082260132,
          "159": -1.2547492980957031,
          "160": -0.349588543176651,
          "161": -0.20910178124904633,
          "162": -2.336077928543091,
          "163": -0.26543259620666504,
          "164": 0.9788661003112793,
          "165": -0.9570508003234863,
          "166": 1.932737946510315,
          "167": 1.4551589488983154,
          "168": -0.9359473586082458,
          "169": 0.05479675158858299,
          "170": -0.6663082242012024,
          "171": 0.7432253360748291,
          "172": 1.3775101900100708,
          "173": -1.046789526939392,
          "174": -1.0066180229187012,
          "175": 0.9298282265663147,
          "176": 0.009526986628770828,
          "177": 2.319054365158081,
          "178": -0.8114129304885864,
          "179": 0.6603859066963196,
          "180": -2.1776065826416016,
          "181": -0.774005115032196,
          "182": -0.555498480796814,
          "183": -0.6519765853881836,
          "184": -0.24428512156009674,
          "185": -2.665705680847168,
          "186": 1.4048110246658325,
          "187": 1.1101927757263184,
          "188": -0.04754507169127464,
          "189": 0.46123427152633667,
          "190": 0.35438013076782227,
          "191": 1.016417384147644,
          "192": 1.5755559206008911,
          "193": -0.10310780256986618,
          "194": 0.9677077531814575,
          "195": -0.3317437469959259,
          "196": -2.4321112632751465,
          "197": 0.257596492767334,
          "198": 0.6230325102806091,
          "199": 0.17046859860420227,
          "200": 1.2502672672271729,
          "201": 0.7909832000732422,
          "202": 0.18845191597938538,
          "203": 0.083794504404068,
          "204": 1.3719455003738403,
          "205": -1.4690102338790894,
          "206": -2.2203588485717773,
          "207": -0.4057024121284485,
          "208": 1.4674437046051025,
          "209": -0.7990740537643433,
          "210": -0.544102668762207,
          "211": -2.14703369140625,
          "212": -2.44920015335083,
          "213": -1.9707170724868774,
          "214": -0.9666056036949158,
          "215": 0.03799642622470856,
          "216": 1.5244249105453491,
          "217": -1.1480258703231812,
          "218": 0.4788079857826233,
          "219": -0.12677863240242004,
          "220": 1.3913863897323608,
          "221": 1.125205636024475,
          "222": 1.3335033655166626,
          "223": 0.2501044273376465,
          "224": 0.4103161096572876,
          "225": -0.2821604311466217,
          "226": -1.3480538129806519,
          "227": -0.6193628311157227,
          "228": -0.22142861783504486,
          "229": -1.5370272397994995,
          "230": 0.97276371717453,
          "231": -0.8217834234237671,
          "232": 0.19736085832118988,
          "233": -0.35954031348228455,
          "234": 0.04797961935400963,
          "235": 1.9175021648406982,
          "236": -1.6962708234786987,
          "237": -1.5398962497711182,
          "238": -0.15210966765880585,
          "239": 0.1773124486207962,
          "240": -2.99200177192688,
          "241": -0.5571600794792175,
          "242": -0.4738900363445282,
          "243": -0.7395122051239014,
          "244": -0.10401079058647156,
          "245": -0.2932129502296448,
          "246": 0.7402887940406799,
          "247": 0.21871928870677948,
          "248": 0.643382728099823,
          "249": 0.7927253842353821,
          "250": -1.1298364400863647,
          "251": 0.16498979926109314,
          "252": 1.7308284044265747,
          "253": 0.7141973376274109,
          "254": 0.5950558185577393,
          "255": -1.036186695098877,
          "256": -2.111828565597534,
          "257": -0.546166181564331,
          "258": -0.8522580862045288,
          "259": 0.15117207169532776,
          "260": 2.092970848083496,
          "261": 0.8671841621398926,
          "262": 0.19118274748325348,
          "263": -1.3423452377319336,
          "264": -0.05080541595816612,
          "265": 0.05046140030026436,
          "266": -0.5489177703857422,
          "267": -1.544948935508728,
          "268": 1.7118850946426392,
          "269": -0.02656763792037964,
          "270": -1.837057113647461,
          "271": -0.7180894017219543,
          "272": -0.7720717787742615,
          "273": -0.7661877274513245,
          "274": 0.21794357895851135,
          "275": -0.5536618828773499,
          "276": 1.4805513620376587,
          "277": -0.03863181546330452,
          "278": 0.5520265102386475,
          "279": 0.5883689522743225,
          "280": 0.5864786505699158,
          "281": 0.3946223258972168,
          "282": 0.6917322278022766,
          "283": 1.7325408458709717,
          "284": 1.1790261268615723,
          "285": -0.16056016087532043,
          "286": -1.4524744749069214,
          "287": 0.664627194404602,
          "288": -0.44438380002975464,
          "289": -1.515689492225647,
          "290": 2.355804204940796,
          "291": 0.039848923683166504,
          "292": -1.02511465549469,
          "293": 1.0565192699432373,
          "294": -0.040096912533044815,
          "295": 0.5468097925186157,
          "296": -1.3659260272979736,
          "297": -0.5766317844390869,
          "298": 0.5330594182014465,
          "299": -0.14953957498073578,
          "300": 0.03660247474908829,
          "301": -0.6627443432807922,
          "302": 1.0800111293792725,
          "303": 0.13838344812393188,
          "304": 0.8872653841972351,
          "305": -0.27033036947250366,
          "306": 0.9415202140808105,
          "307": 0.24929051101207733,
          "308": -0.02198256552219391,
          "309": 0.9420148134231567,
          "310": -1.6312130689620972,
          "311": 2.1624386310577393,
          "312": -0.38684967160224915,
          "313": 0.90085369348526,
          "314": -1.0341907739639282,
          "315": -0.9601397514343262,
          "316": 0.463280588388443,
          "317": -1.5397366285324097,
          "318": 0.7791180610656738,
          "319": -0.07024101167917252,
          "320": 1.0379921197891235,
          "321": 0.15716835856437683,
          "322": 0.12502174079418182,
          "323": 0.38101255893707275,
          "324": 3.0253899097442627,
          "325": -0.32495975494384766,
          "326": 0.8924732804298401,
          "327": -1.7345913648605347,
          "328": 1.1362510919570923,
          "329": -0.19796207547187805,
          "330": -0.928568959236145,
          "331": 0.3091793656349182,
          "332": -0.6621091961860657,
          "333": 0.18942593038082123,
          "334": -0.2601926624774933,
          "335": -0.317571759223938,
          "336": 0.8105994462966919,
          "337": -0.7198426723480225,
          "338": 0.48683416843414307,
          "339": 0.12318960577249527,
          "340": -0.06748268753290176,
          "341": 0.6512946486473083,
          "342": 1.049448013305664,
          "343": 0.7163383364677429,
          "344": 1.0204178094863892,
          "345": -0.7848675847053528,
          "346": -0.8679173588752747,
          "347": 0.16632148623466492,
          "348": 0.1869252324104309,
          "349": -1.287226676940918,
          "350": 0.9864091277122498,
          "351": 1.192112922668457,
          "352": -1.0909638404846191,
          "353": -1.2303284406661987,
          "354": 0.1731935739517212,
          "355": 0.2465474158525467,
          "356": 1.1429619789123535,
          "357": -1.246455192565918,
          "358": -0.4502592980861664,
          "359": -0.5190058946609497,
          "360": 0.8631106615066528,
          "361": -0.6877350211143494,
          "362": 1.6888917684555054,
          "363": 0.4627760648727417,
          "364": -1.210336446762085,
          "365": 1.4901641607284546,
          "366": 0.7895251512527466,
          "367": 0.05176426097750664,
          "368": -0.33849552273750305,
          "369": -0.544654905796051,
          "370": -1.0279814004898071,
          "371": 0.902755081653595,
          "372": 0.7856088876724243,
          "373": 0.08601728826761246,
          "374": 0.13961844146251678,
          "375": 0.4078601896762848,
          "376": 0.08165702223777771,
          "377": -2.2772128582000732,
          "378": -1.1677757501602173,
          "379": -0.7475922703742981,
          "380": -0.3132305145263672,
          "381": -1.0975933074951172,
          "382": -1.0307366847991943,
          "383": 0.6295751333236694,
          "384": -2.655041456222534,
          "385": -0.26379477977752686,
          "386": 1.5708378553390503,
          "387": -0.971411943435669,
          "388": -0.010183141566812992,
          "389": 0.08098019659519196,
          "390": -0.37293192744255066,
          "391": 0.7964618802070618,
          "392": 0.16074305772781372,
          "393": -2.7712957859039307,
          "394": -0.16645973920822144,
          "395": -1.169973373413086,
          "396": -0.19040566682815552,
          "397": 1.296566367149353,
          "398": 1.4726346731185913,
          "399": -0.5859832167625427,
          "400": 0.876979410648346,
          "401": 1.3271666765213013,
          "402": -0.5241393446922302,
          "403": 0.6231820583343506,
          "404": 0.8082817196846008,
          "405": 0.8133333921432495,
          "406": 0.6266698837280273,
          "407": 0.8317453265190125,
          "408": -1.5365928411483765,
          "409": -0.6436319947242737,
          "410": 0.5829049348831177,
          "411": 0.5023201107978821,
          "412": 0.927727460861206,
          "413": -0.04108394309878349,
          "414": 1.8453084230422974,
          "415": 0.1708543598651886,
          "416": -1.1075468063354492,
          "417": 0.7876511812210083,
          "418": -0.5535480380058289,
          "419": 1.6113717555999756,
          "420": -0.7470265030860901,
          "421": -0.02099219523370266,
          "422": 2.5160348415374756,
          "423": 1.3969285488128662,
          "424": -0.7957643270492554,
          "425": -0.11868897080421448,
          "426": 0.9531749486923218,
          "427": 0.2842351496219635,
          "428": -1.8783093690872192,
          "429": -0.29477623105049133,
          "430": -2.241020441055298,
          "431": -1.8307849168777466,
          "432": 0.7479476928710938,
          "433": -1.8805478811264038,
          "434": 0.4648607671260834,
          "435": 0.5162264704704285,
          "436": -0.6944720149040222,
          "437": 0.12422904372215271,
          "438": 0.6373004913330078,
          "439": 2.4990954399108887,
          "440": 0.6220795512199402,
          "441": -1.2199969291687012,
          "442": 0.1637439876794815,
          "443": -1.4852663278579712,
          "444": -1.6768850088119507,
          "445": -1.4133789539337158,
          "446": 0.03513148054480553,
          "447": -0.08619283884763718,
          "448": 0.3100923001766205,
          "449": -0.919992208480835,
          "450": 2.408595085144043,
          "451": 0.8957631587982178,
          "452": 0.780002236366272,
          "453": 1.0124915838241577,
          "454": -0.5440894961357117,
          "455": -0.10291555523872375,
          "456": 0.2912655174732208,
          "457": -0.17654740810394287,
          "458": -1.5063916444778442,
          "459": -0.25858747959136963,
          "460": -0.8747310042381287,
          "461": -0.21359661221504211,
          "462": -1.1160718202590942,
          "463": -2.411247730255127,
          "464": -0.9783172011375427,
          "465": 0.13052915036678314,
          "466": 1.5131672620773315,
          "467": -1.4491822719573975,
          "468": 1.846461296081543,
          "469": 1.3581470251083374,
          "470": -1.6796404123306274,
          "471": -1.6790632009506226,
          "472": 0.8726252913475037,
          "473": -0.9005273580551147,
          "474": 0.14551663398742676,
          "475": 0.7247664332389832,
          "476": 1.202600121498108,
          "477": -0.30929383635520935,
          "478": 0.5953726172447205,
          "479": 0.5276104807853699,
          "480": 0.9307162761688232,
          "481": 0.7147120833396912,
          "482": 0.7653359770774841,
          "483": -0.8110781311988831,
          "484": 1.1570966243743896,
          "485": -0.6400901079177856,
          "486": 0.8862885236740112,
          "487": 1.124963641166687,
          "488": 2.4530601501464844,
          "489": 0.8930872678756714,
          "490": 0.34937015175819397,
          "491": 2.1287834644317627,
          "492": -0.358604371547699,
          "493": -0.21778878569602966,
          "494": -2.306917428970337,
          "495": 0.970890998840332,
          "496": 1.2457326650619507,
          "497": 0.5656411647796631,
          "498": 0.6185607314109802,
          "499": -0.40541237592697144,
          "500": -0.4312024414539337,
          "501": 0.2240918129682541,
          "502": -0.4731757342815399,
          "503": 0.29889118671417236,
          "504": 1.2008390426635742,
          "505": -0.5197616219520569,
          "506": 0.17047470808029175,
          "507": -1.76736581325531,
          "508": 0.25070708990097046,
          "509": 0.8968014717102051,
          "510": 0.3240695595741272,
          "511": 0.05953570082783699,
          "512": 2.1194794178009033,
          "513": 0.4621467888355255,
          "514": 0.4110017418861389,
          "515": 1.5409936904907227,
          "516": -0.3654739260673523,
          "517": 1.1085844039916992,
          "518": 0.2636726498603821,
          "519": 0.3743149936199188,
          "520": -0.938752293586731,
          "521": -0.317271888256073,
          "522": -1.3053901195526123,
          "523": 0.027917426079511642,
          "524": -1.4829119443893433,
          "525": 1.5665619373321533,
          "526": 1.3752014636993408,
          "527": -0.2366706281900406,
          "528": 2.6936895847320557,
          "529": 0.07035806030035019,
          "530": -1.0091819763183594,
          "531": -2.7821924686431885,
          "532": 0.8125264048576355,
          "533": 0.8895916938781738,
          "534": -1.3694545030593872,
          "535": -0.0473165363073349,
          "536": 2.40592885017395,
          "537": 1.3130078315734863,
          "538": -1.491867184638977,
          "539": 0.4824025630950928,
          "540": 0.36164209246635437,
          "541": -1.1819124221801758,
          "542": 2.555864095687866,
          "543": -0.4728529453277588,
          "544": -0.4924665689468384,
          "545": 0.5841156840324402,
          "546": -0.593316376209259,
          "547": 0.9763110876083374,
          "548": 0.021823320537805557,
          "549": 0.20401394367218018,
          "550": -0.9052589535713196,
          "551": 2.0412819385528564,
          "552": -0.16531839966773987,
          "553": -0.031948789954185486,
          "554": 0.0129244988784194,
          "555": 0.7863070964813232,
          "556": 0.059236928820610046,
          "557": -1.7982393503189087,
          "558": -1.246228814125061,
          "559": -0.41759949922561646,
          "560": 0.3764398396015167,
          "561": -0.4582498371601105,
          "562": -0.26277998089790344,
          "563": 0.2007623016834259,
          "564": 0.12376193702220917,
          "565": -1.0335588455200195,
          "566": 0.8928385376930237,
          "567": -1.0808205604553223,
          "568": 0.15710869431495667,
          "569": -0.03175735846161842,
          "570": -0.7204937934875488,
          "571": -1.6306248903274536,
          "572": -0.7044218182563782,
          "573": 1.117074728012085,
          "574": 1.4352107048034668,
          "575": -1.645890235900879,
          "576": -0.15526315569877625,
          "577": -1.4411743879318237,
          "578": -1.015001893043518,
          "579": 1.4131524562835693,
          "580": 0.6285976767539978,
          "581": -0.4773861765861511,
          "582": 1.7110581398010254,
          "583": 0.6195330023765564,
          "584": -0.24419067800045013,
          "585": -0.8134996891021729,
          "586": -1.7752596139907837,
          "587": 1.0656083822250366,
          "588": 0.8296419382095337,
          "589": -2.3759875297546387,
          "590": 0.16488398611545563,
          "591": -0.2537846267223358,
          "592": 0.2891460657119751,
          "593": 1.0912535190582275,
          "594": -0.899649977684021,
          "595": 1.6961501836776733,
          "596": -0.6189557313919067,
          "597": 1.2811001539230347,
          "598": 3.4290196895599365,
          "599": -1.3236223459243774
        }
      },
      "forgetHidden": {
        "rows": 20,
        "columns": 20,
        "weights": {
          "0": 1.208606243133545,
          "1": 0.6472283601760864,
          "2": 1.077479362487793,
          "3": 2.139930009841919,
          "4": 0.09287350624799728,
          "5": -0.8696718811988831,
          "6": 1.3705500364303589,
          "7": -3.049435615539551,
          "8": -0.11463379859924316,
          "9": 0.20903660356998444,
          "10": -0.4528209865093231,
          "11": 2.822098731994629,
          "12": -2.9781835079193115,
          "13": -2.6251537799835205,
          "14": 0.5622121691703796,
          "15": 0.40575024485588074,
          "16": -2.063063859939575,
          "17": -0.6961055397987366,
          "18": 0.8239203691482544,
          "19": 0.7770238518714905,
          "20": 0.2904531955718994,
          "21": 0.5353628396987915,
          "22": -0.6410502195358276,
          "23": -1.5363709926605225,
          "24": -1.1950691938400269,
          "25": 1.7056200504302979,
          "26": -0.8081592917442322,
          "27": -0.9720434546470642,
          "28": -1.2681180238723755,
          "29": 2.9076550006866455,
          "30": -3.077420711517334,
          "31": -1.7150086164474487,
          "32": 0.8952877521514893,
          "33": 0.07010308653116226,
          "34": 1.633354663848877,
          "35": 3.198033094406128,
          "36": -2.4713191986083984,
          "37": -1.4424909353256226,
          "38": 3.015892744064331,
          "39": 0.8608004450798035,
          "40": 0.5339251160621643,
          "41": -0.09096866846084595,
          "42": 1.3881070613861084,
          "43": -0.7306767106056213,
          "44": -0.5457339882850647,
          "45": 0.047492511570453644,
          "46": 0.07754208147525787,
          "47": 0.7098170518875122,
          "48": 0.6345783472061157,
          "49": -0.37514007091522217,
          "50": 1.6372389793395996,
          "51": 1.2105786800384521,
          "52": 0.5564321875572205,
          "53": -0.27420544624328613,
          "54": 0.6957034468650818,
          "55": -0.2976217269897461,
          "56": 0.5677545070648193,
          "57": -0.7334186434745789,
          "58": -1.0738208293914795,
          "59": 0.136704683303833,
          "60": -0.05705986171960831,
          "61": -0.3593112528324127,
          "62": 0.17638736963272095,
          "63": -1.1914035081863403,
          "64": 0.7266912460327148,
          "65": 1.5084185600280762,
          "66": -0.17847755551338196,
          "67": 0.30932313203811646,
          "68": 0.0523453988134861,
          "69": 0.9974074363708496,
          "70": -1.8429365158081055,
          "71": -1.3251872062683105,
          "72": -0.6262127757072449,
          "73": -0.8769607543945312,
          "74": -0.9022762775421143,
          "75": 0.3354852795600891,
          "76": -0.6020296216011047,
          "77": -2.761777877807617,
          "78": -0.5482742190361023,
          "79": 1.5313924551010132,
          "80": -0.05422982573509216,
          "81": 0.43477171659469604,
          "82": -0.06329028308391571,
          "83": 0.640007734298706,
          "84": 0.1258201152086258,
          "85": -0.026821929961442947,
          "86": 0.11982420831918716,
          "87": -0.1895916759967804,
          "88": -1.0331283807754517,
          "89": -0.8486862182617188,
          "90": 0.20340387523174286,
          "91": 0.1338779479265213,
          "92": -1.325016736984253,
          "93": 0.19722676277160645,
          "94": -0.002490804996341467,
          "95": -0.9728907346725464,
          "96": 1.2002978324890137,
          "97": 0.20707029104232788,
          "98": -0.2067280113697052,
          "99": -1.2287037372589111,
          "100": -0.3313681185245514,
          "101": -0.754422128200531,
          "102": 1.4438828229904175,
          "103": -1.4083268642425537,
          "104": -2.7154972553253174,
          "105": 0.1324903964996338,
          "106": 0.4295029938220978,
          "107": 2.2515769004821777,
          "108": 0.5936705470085144,
          "109": 1.5392382144927979,
          "110": 1.74619460105896,
          "111": -0.12511684000492096,
          "112": 0.5199564099311829,
          "113": 1.6810238361358643,
          "114": -0.01790783368051052,
          "115": 1.3363772630691528,
          "116": -1.6184905767440796,
          "117": 0.08587148785591125,
          "118": -0.04934438690543175,
          "119": 1.624566912651062,
          "120": -1.7525835037231445,
          "121": 1.4130080938339233,
          "122": -0.3011704981327057,
          "123": 0.964435875415802,
          "124": 2.989558696746826,
          "125": 1.3965473175048828,
          "126": -2.8378186225891113,
          "127": -0.42636314034461975,
          "128": 0.06924524158239365,
          "129": 3.336066246032715,
          "130": 0.054371435195207596,
          "131": -0.5749221444129944,
          "132": -0.04385199770331383,
          "133": 2.3071200847625732,
          "134": -1.019362211227417,
          "135": 0.2052009254693985,
          "136": 1.075149416923523,
          "137": 0.7127044796943665,
          "138": 0.6424792408943176,
          "139": 1.4810822010040283,
          "140": 0.9822360277175903,
          "141": 2.5146939754486084,
          "142": -0.6177343130111694,
          "143": -0.3009885549545288,
          "144": 1.03825843334198,
          "145": -0.884032130241394,
          "146": 1.7696630954742432,
          "147": -0.8381207585334778,
          "148": -0.4836263060569763,
          "149": -1.7651121616363525,
          "150": -1.5154615640640259,
          "151": 2.016754150390625,
